digraph Tree {
node [shape=box] ;
0 [label="X[16] <= 0.5\ngini = 0.903\nsamples = 658536\nvalue = [1149, 57650, 312, 212, 27545, 3248, 1699, 40438, 3202\n857, 190, 388, 7981, 12545, 111, 1771, 131367, 1439\n890, 19479, 69228, 94782, 17, 5595, 2318, 17263, 1460\n7510, 3296, 115, 3390, 369, 23476, 5, 5440, 33492\n40290, 31607, 6410]"] ;
1 [label="X[7] <= 0.5\ngini = 0.901\nsamples = 596967\nvalue = [1098, 51880, 296, 200, 26439, 2623, 1626, 27125, 2858\n789, 184, 359, 7570, 11680, 103, 1619, 123907, 1304\n745, 18844, 63623, 84401, 16, 4922, 2220, 15613, 1455\n6966, 3048, 111, 3137, 350, 21595, 5, 4571, 32290\n39514, 26075, 5806]"] ;
0 -> 1 [labeldistance=2.5, labelangle=45, headlabel="True"] ;
2 [label="X[9] <= 0.5\ngini = 0.897\nsamples = 529930\nvalue = [795, 44442, 271, 159, 23500, 2460, 1490, 23807, 2671\n718, 174, 302, 6980, 11014, 84, 1383, 116342, 1214\n709, 15068, 59052, 71649, 14, 4868, 1684, 13562, 1259\n5720, 2759, 90, 2834, 327, 18625, 2, 4104, 28256\n34115, 22833, 4594]"] ;
1 -> 2 ;
3 [label="X[10] <= 0.5\ngini = 0.894\nsamples = 470834\nvalue = [658, 38077, 249, 122, 21024, 2330, 1342, 22017, 2537\n656, 149, 247, 6234, 10125, 71, 1120, 108613, 1139\n689, 12696, 53941, 61720, 14, 4852, 1180, 11439, 1141\n4762, 2393, 71, 2573, 275, 16261, 2, 3788, 24235\n27401, 20935, 3756]"] ;
2 -> 3 ;
4 [label="X[15] <= 0.5\ngini = 0.887\nsamples = 380978\nvalue = [562, 29750, 212, 75, 18215, 1489, 1075, 15492, 1942\n566, 132, 135, 5268, 8658, 56, 876, 94926, 779, 547\n10237, 44633, 47170, 12, 2127, 954, 8720, 914, 3688\n1841, 45, 2093, 225, 13430, 1, 3038, 20256, 22057\n16028, 2754]"] ;
3 -> 4 ;
5 [label="gini = 0.883\nsamples = 331778\nvalue = [465, 25655, 184, 61, 15644, 1366, 933, 14350, 1750\n504, 105, 107, 4453, 7475, 50, 736, 86005, 679, 521\n7749, 39447, 40688, 10, 2066, 753, 7645, 604, 2936\n1566, 37, 1912, 174, 11173, 1, 2764, 16605, 17452\n14838, 2315]"] ;
4 -> 5 ;
6 [label="gini = 0.907\nsamples = 49200\nvalue = [97, 4095, 28, 14, 2571, 123, 142, 1142, 192, 62\n27, 28, 815, 1183, 6, 140, 8921, 100, 26, 2488\n5186, 6482, 2, 61, 201, 1075, 310, 752, 275, 8\n181, 51, 2257, 0, 274, 3651, 4605, 1190, 439]"] ;
4 -> 6 ;
7 [label="X[29] <= 0.5\ngini = 0.912\nsamples = 89856\nvalue = [96, 8327, 37, 47, 2809, 841, 267, 6525, 595, 90\n17, 112, 966, 1467, 15, 244, 13687, 360, 142, 2459\n9308, 14550, 2, 2725, 226, 2719, 227, 1074, 552, 26\n480, 50, 2831, 1, 750, 3979, 5344, 4907, 1002]"] ;
3 -> 7 ;
8 [label="gini = 0.911\nsamples = 87148\nvalue = [88, 7890, 36, 43, 2724, 811, 241, 6413, 563, 89\n17, 111, 961, 1437, 15, 225, 13411, 359, 140, 2430\n9078, 14179, 2, 2623, 215, 2450, 223, 1036, 515, 26\n469, 49, 2749, 1, 729, 3815, 5239, 4783, 963]"] ;
7 -> 8 ;
9 [label="gini = 0.914\nsamples = 2708\nvalue = [8, 437, 1, 4, 85, 30, 26, 112, 32, 1, 0, 1, 5\n30, 0, 19, 276, 1, 2, 29, 230, 371, 0, 102, 11\n269, 4, 38, 37, 0, 11, 1, 82, 0, 21, 164, 105\n124, 39]"] ;
7 -> 9 ;
10 [label="X[32] <= 0.5\ngini = 0.909\nsamples = 59096\nvalue = [137, 6365, 22, 37, 2476, 130, 148, 1790, 134, 62\n25, 55, 746, 889, 13, 263, 7729, 75, 20, 2372\n5111, 9929, 0, 16, 504, 2123, 118, 958, 366, 19\n261, 52, 2364, 0, 316, 4021, 6714, 1898, 838]"] ;
2 -> 10 ;
11 [label="X[31] <= 0.5\ngini = 0.909\nsamples = 55828\nvalue = [121, 5999, 20, 36, 2406, 125, 123, 1722, 122, 62\n25, 54, 734, 869, 13, 248, 7248, 71, 20, 2277\n4897, 9471, 0, 16, 480, 1946, 113, 919, 350, 18\n245, 52, 2268, 0, 307, 3757, 6093, 1817, 784]"] ;
10 -> 11 ;
12 [label="gini = 0.91\nsamples = 52619\nvalue = [111, 5654, 20, 35, 2302, 117, 114, 1647, 115, 61\n25, 51, 725, 850, 13, 236, 6770, 68, 19, 2172\n4691, 9032, 0, 16, 467, 1796, 107, 876, 340, 17\n235, 51, 2162, 0, 296, 3462, 5489, 1738, 739]"] ;
11 -> 12 ;
13 [label="gini = 0.892\nsamples = 3209\nvalue = [10, 345, 0, 1, 104, 8, 9, 75, 7, 1, 0, 3, 9\n19, 0, 12, 478, 3, 1, 105, 206, 439, 0, 0, 13\n150, 6, 43, 10, 1, 10, 1, 106, 0, 11, 295, 604\n79, 45]"] ;
11 -> 13 ;
14 [label="X[0] <= 0.5\ngini = 0.892\nsamples = 3268\nvalue = [16, 366, 2, 1, 70, 5, 25, 68, 12, 0, 0, 1, 12\n20, 0, 15, 481, 4, 0, 95, 214, 458, 0, 0, 24\n177, 5, 39, 16, 1, 16, 0, 96, 0, 9, 264, 621\n81, 54]"] ;
10 -> 14 ;
15 [label="gini = 0.891\nsamples = 2763\nvalue = [14, 320, 1, 1, 59, 2, 21, 54, 9, 0, 0, 1, 12\n17, 0, 9, 412, 4, 0, 68, 182, 375, 0, 0, 22\n152, 4, 32, 13, 1, 13, 0, 83, 0, 8, 219, 539\n70, 46]"] ;
14 -> 15 ;
16 [label="gini = 0.899\nsamples = 505\nvalue = [2, 46, 1, 0, 11, 3, 4, 14, 3, 0, 0, 0, 0, 3\n0, 6, 69, 0, 0, 27, 32, 83, 0, 0, 2, 25, 1\n7, 3, 0, 3, 0, 13, 0, 1, 45, 82, 11, 8]"] ;
14 -> 16 ;
17 [label="X[38] <= 0.5\ngini = 0.91\nsamples = 67037\nvalue = [303, 7438, 25, 41, 2939, 163, 136, 3318, 187, 71\n10, 57, 590, 666, 19, 236, 7565, 90, 36, 3776\n4571, 12752, 2, 54, 536, 2051, 196, 1246, 289, 21\n303, 23, 2970, 3, 467, 4034, 5399, 3242, 1212]"] ;
1 -> 17 ;
18 [label="X[31] <= 0.5\ngini = 0.91\nsamples = 65013\nvalue = [296, 7251, 25, 41, 2806, 158, 135, 3258, 185, 70\n10, 55, 584, 648, 19, 229, 7363, 89, 34, 3480\n4429, 12421, 2, 49, 520, 2007, 180, 1206, 282, 21\n294, 23, 2884, 3, 452, 3919, 5214, 3171, 1200]"] ;
17 -> 18 ;
19 [label="X[32] <= 0.5\ngini = 0.91\nsamples = 61804\nvalue = [277, 6848, 24, 41, 2697, 152, 123, 3135, 175, 69\n10, 54, 577, 639, 18, 219, 6944, 88, 33, 3299\n4223, 11960, 2, 47, 498, 1868, 174, 1142, 273, 20\n282, 23, 2746, 3, 442, 3664, 4828, 3059, 1128]"] ;
18 -> 19 ;
20 [label="gini = 0.91\nsamples = 58319\nvalue = [252, 6496, 24, 40, 2595, 145, 114, 2976, 165, 68\n8, 50, 570, 623, 18, 209, 6479, 87, 32, 3117, 4050\n11367, 2, 45, 481, 1721, 161, 1095, 252, 20, 271\n21, 2616, 2, 436, 3373, 4385, 2894, 1059]"] ;
19 -> 20 ;
21 [label="gini = 0.906\nsamples = 3485\nvalue = [25, 352, 0, 1, 102, 7, 9, 159, 10, 1, 2, 4, 7\n16, 0, 10, 465, 1, 1, 182, 173, 593, 0, 2, 17\n147, 13, 47, 21, 0, 11, 2, 130, 1, 6, 291, 443\n165, 69]"] ;
19 -> 21 ;
22 [label="X[5] <= 0.5\ngini = 0.91\nsamples = 3209\nvalue = [19, 403, 1, 0, 109, 6, 12, 123, 10, 1, 0, 1, 7\n9, 1, 10, 419, 1, 1, 181, 206, 461, 0, 2, 22\n139, 6, 64, 9, 1, 12, 0, 138, 0, 10, 255, 386\n112, 72]"] ;
18 -> 22 ;
23 [label="gini = 0.909\nsamples = 2779\nvalue = [15, 345, 1, 0, 99, 6, 11, 99, 10, 1, 0, 1, 7\n9, 1, 9, 378, 1, 0, 155, 175, 406, 0, 2, 20\n118, 6, 55, 9, 1, 11, 0, 117, 0, 9, 223, 327\n88, 64]"] ;
22 -> 23 ;
24 [label="gini = 0.911\nsamples = 430\nvalue = [4, 58, 0, 0, 10, 0, 1, 24, 0, 0, 0, 0, 0, 0\n0, 1, 41, 0, 1, 26, 31, 55, 0, 0, 2, 21, 0\n9, 0, 0, 1, 0, 21, 0, 1, 32, 59, 24, 8]"] ;
22 -> 24 ;
25 [label="X[3] <= 0.5\ngini = 0.907\nsamples = 2024\nvalue = [7, 187, 0, 0, 133, 5, 1, 60, 2, 1, 0, 2, 6\n18, 0, 7, 202, 1, 2, 296, 142, 331, 0, 5, 16\n44, 16, 40, 7, 0, 9, 0, 86, 0, 15, 115, 185\n71, 12]"] ;
17 -> 25 ;
26 [label="X[2] <= 0.5\ngini = 0.905\nsamples = 1853\nvalue = [3, 154, 0, 0, 123, 5, 1, 56, 1, 1, 0, 2, 6\n15, 0, 6, 189, 0, 2, 288, 129, 312, 0, 5, 14\n38, 16, 34, 7, 0, 9, 0, 76, 0, 13, 107, 168\n62, 11]"] ;
25 -> 26 ;
27 [label="gini = 0.901\nsamples = 1687\nvalue = [2, 135, 0, 0, 119, 5, 0, 47, 1, 1, 0, 2, 5\n15, 0, 6, 177, 0, 2, 279, 108, 287, 0, 5, 11\n30, 15, 32, 7, 0, 9, 0, 62, 0, 11, 93, 158, 55\n8]"] ;
26 -> 27 ;
28 [label="gini = 0.913\nsamples = 166\nvalue = [1, 19, 0, 0, 4, 0, 1, 9, 0, 0, 0, 0, 1, 0\n0, 0, 12, 0, 0, 9, 21, 25, 0, 0, 3, 8, 1, 2\n0, 0, 0, 0, 14, 0, 2, 14, 10, 7, 3]"] ;
26 -> 28 ;
29 [label="gini = 0.911\nsamples = 171\nvalue = [4, 33, 0, 0, 10, 0, 0, 4, 1, 0, 0, 0, 0, 3\n0, 1, 13, 1, 0, 8, 13, 19, 0, 0, 2, 6, 0, 6\n0, 0, 0, 0, 10, 0, 2, 8, 17, 9, 1]"] ;
25 -> 29 ;
30 [label="X[37] <= 0.5\ngini = 0.881\nsamples = 61569\nvalue = [51, 5770, 16, 12, 1106, 625, 73, 13313, 344, 68, 6\n29, 411, 865, 8, 152, 7460, 135, 145, 635, 5605\n10381, 1, 673, 98, 1650, 5, 544, 248, 4, 253, 19\n1881, 0, 869, 1202, 776, 5532, 604]"] ;
0 -> 30 [labeldistance=2.5, labelangle=-45, headlabel="False"] ;
31 [label="X[36] <= 0.5\ngini = 0.88\nsamples = 60124\nvalue = [50, 5674, 16, 12, 1080, 433, 72, 13180, 339, 68, 6\n28, 405, 857, 8, 151, 7378, 134, 111, 622, 5488\n10123, 1, 655, 94, 1610, 5, 531, 244, 4, 251, 18\n1846, 0, 683, 1171, 758, 5433, 585]"] ;
30 -> 31 ;
32 [label="X[29] <= 0.5\ngini = 0.879\nsamples = 59425\nvalue = [44, 5593, 16, 12, 1065, 365, 72, 13150, 338, 68, 6\n28, 402, 851, 8, 149, 7340, 134, 84, 618, 5412\n10028, 1, 635, 92, 1574, 5, 525, 238, 4, 250, 18\n1825, 0, 620, 1156, 747, 5373, 579]"] ;
31 -> 32 ;
33 [label="X[18] <= 0.5\ngini = 0.877\nsamples = 58105\nvalue = [42, 5344, 16, 10, 1045, 360, 65, 13006, 318, 68, 5\n28, 398, 838, 8, 140, 7208, 130, 83, 606, 5313\n9836, 1, 626, 91, 1474, 5, 509, 217, 4, 244, 17\n1786, 0, 607, 1096, 730, 5272, 559]"] ;
32 -> 33 ;
34 [label="gini = 0.876\nsamples = 56633\nvalue = [41, 5092, 16, 9, 1021, 355, 56, 12840, 297, 66, 4\n26, 395, 819, 8, 132, 7060, 126, 82, 589, 5166\n9605, 1, 609, 89, 1372, 5, 497, 199, 4, 237, 16\n1746, 0, 599, 1047, 708, 5160, 539]"] ;
33 -> 34 ;
35 [label="gini = 0.899\nsamples = 1472\nvalue = [1, 252, 0, 1, 24, 5, 9, 166, 21, 2, 1, 2, 3\n19, 0, 8, 148, 4, 1, 17, 147, 231, 0, 17, 2\n102, 0, 12, 18, 0, 7, 1, 40, 0, 8, 49, 22, 112\n20]"] ;
33 -> 35 ;
36 [label="X[3] <= 0.5\ngini = 0.899\nsamples = 1320\nvalue = [2, 249, 0, 2, 20, 5, 7, 144, 20, 0, 1, 0, 4\n13, 0, 9, 132, 4, 1, 12, 99, 192, 0, 9, 1, 100\n0, 16, 21, 0, 6, 1, 39, 0, 13, 60, 17, 101, 20]"] ;
32 -> 36 ;
37 [label="gini = 0.901\nsamples = 1072\nvalue = [2, 184, 0, 2, 16, 4, 6, 126, 17, 0, 1, 0, 2\n11, 0, 6, 106, 3, 1, 10, 83, 159, 0, 9, 1, 84\n0, 9, 11, 0, 6, 1, 33, 0, 9, 47, 15, 92, 16]"] ;
36 -> 37 ;
38 [label="gini = 0.881\nsamples = 248\nvalue = [0, 65, 0, 0, 4, 1, 1, 18, 3, 0, 0, 0, 2, 2\n0, 3, 26, 1, 0, 2, 16, 33, 0, 0, 0, 16, 0, 7\n10, 0, 0, 0, 6, 0, 4, 13, 2, 9, 4]"] ;
36 -> 38 ;
39 [label="X[0] <= 0.5\ngini = 0.919\nsamples = 699\nvalue = [6, 81, 0, 0, 15, 68, 0, 30, 1, 0, 0, 0, 3, 6\n0, 2, 38, 0, 27, 4, 76, 95, 0, 20, 2, 36, 0\n6, 6, 0, 1, 0, 21, 0, 63, 15, 11, 60, 6]"] ;
31 -> 39 ;
40 [label="X[3] <= 0.5\ngini = 0.917\nsamples = 618\nvalue = [5, 72, 0, 0, 10, 66, 0, 22, 1, 0, 0, 0, 3, 4\n0, 2, 28, 0, 27, 4, 66, 82, 0, 17, 2, 32, 0\n6, 5, 0, 1, 0, 16, 0, 63, 14, 10, 54, 6]"] ;
39 -> 40 ;
41 [label="gini = 0.918\nsamples = 533\nvalue = [5, 57, 0, 0, 8, 63, 0, 18, 1, 0, 0, 0, 3, 4\n0, 2, 22, 0, 27, 4, 50, 68, 0, 15, 2, 26, 0\n3, 5, 0, 1, 0, 15, 0, 60, 12, 7, 49, 6]"] ;
40 -> 41 ;
42 [label="gini = 0.884\nsamples = 85\nvalue = [0, 15, 0, 0, 2, 3, 0, 4, 0, 0, 0, 0, 0, 0\n0, 0, 6, 0, 0, 0, 16, 14, 0, 2, 0, 6, 0, 3\n0, 0, 0, 0, 1, 0, 3, 2, 3, 5, 0]"] ;
40 -> 42 ;
43 [label="gini = 0.903\nsamples = 81\nvalue = [1, 9, 0, 0, 5, 2, 0, 8, 0, 0, 0, 0, 0, 2\n0, 0, 10, 0, 0, 0, 10, 13, 0, 3, 0, 4, 0, 0\n1, 0, 0, 0, 5, 0, 0, 1, 1, 6, 0]"] ;
39 -> 43 ;
44 [label="X[6] <= 0.5\ngini = 0.903\nsamples = 1445\nvalue = [1, 96, 0, 0, 26, 192, 1, 133, 5, 0, 0, 1, 6\n8, 0, 1, 82, 1, 34, 13, 117, 258, 0, 18, 4, 40\n0, 13, 4, 0, 2, 1, 35, 0, 186, 31, 18, 99, 19]"] ;
30 -> 44 ;
45 [label="X[5] <= 0.5\ngini = 0.907\nsamples = 1183\nvalue = [1, 78, 0, 0, 23, 141, 1, 114, 5, 0, 0, 1, 6\n6, 0, 1, 69, 1, 26, 10, 106, 212, 0, 15, 3, 34\n0, 13, 4, 0, 2, 0, 33, 0, 136, 27, 15, 84, 16]"] ;
44 -> 45 ;
46 [label="X[1] <= 0.5\ngini = 0.91\nsamples = 915\nvalue = [1, 64, 0, 0, 19, 94, 1, 95, 3, 0, 0, 1, 6, 5\n0, 1, 60, 1, 14, 9, 86, 162, 0, 9, 2, 31, 0\n12, 3, 0, 1, 0, 24, 0, 87, 24, 15, 72, 13]"] ;
45 -> 46 ;
47 [label="gini = 0.912\nsamples = 648\nvalue = [1, 51, 0, 0, 13, 57, 1, 71, 2, 0, 0, 1, 5, 4\n0, 1, 51, 1, 5, 5, 64, 112, 0, 9, 1, 25, 0\n10, 1, 0, 1, 0, 19, 0, 49, 18, 15, 49, 6]"] ;
46 -> 47 ;
48 [label="gini = 0.896\nsamples = 267\nvalue = [0, 13, 0, 0, 6, 37, 0, 24, 1, 0, 0, 0, 1, 1\n0, 0, 9, 0, 9, 4, 22, 50, 0, 0, 1, 6, 0, 2\n2, 0, 0, 0, 5, 0, 38, 6, 0, 23, 7]"] ;
46 -> 48 ;
49 [label="gini = 0.88\nsamples = 268\nvalue = [0, 14, 0, 0, 4, 47, 0, 19, 2, 0, 0, 0, 0, 1\n0, 0, 9, 0, 12, 1, 20, 50, 0, 6, 1, 3, 0, 1\n1, 0, 1, 0, 9, 0, 49, 3, 0, 12, 3]"] ;
45 -> 49 ;
50 [label="gini = 0.875\nsamples = 262\nvalue = [0, 18, 0, 0, 3, 51, 0, 19, 0, 0, 0, 0, 0, 2\n0, 0, 13, 0, 8, 3, 11, 46, 0, 3, 1, 6, 0, 0\n0, 0, 0, 1, 2, 0, 50, 4, 3, 15, 3]"] ;
44 -> 50 ;
}
